{"learner":{"attributes":{"scikit_learn":"{\"_estimator_type\": \"classifier\"}"},"feature_names":[],"feature_types":[],"gradient_booster":{"model":{"gbtree_model_param":{"num_parallel_tree":"1","num_trees":"30"},"iteration_indptr":[0,1,2,3,4,5,6,7,8,9,10,11,12,13,14,15,16,17,18,19,20,21,22,23,24,25,26,27,28,29,30],"tree_info":[0,0,0,0,0,0,0,0,0,0,0,0,0,0,0,0,0,0,0,0,0,0,0,0,0,0,0,0,0,0],"trees":[{"base_weights":[-3.064178E-4,9.678435E-1,-7.004669E-1,-1.1071382E-1,1.1836382E0,-1.1027672E0,1.7898884E-1,-6.3692324E-2,5.7091177E-2,1.4234136E-1,3.4191012E-2,-1.1678367E-1,9.3077645E-3,3.334281E-2,-7.097998E-2],"categories":[],"categories_nodes":[],"categories_segments":[],"categories_sizes":[],"default_left":[0,0,0,0,0,0,0,0,0,0,0,0,0,0,0],"id":0,"left_children":[1,3,5,7,9,11,13,-1,-1,-1,-1,-1,-1,-1,-1],"loss_changes":[5.1386288E1,7.5358505E0,1.5761868E1,2.5941153E0,4.881111E0,2.4682808E0,2.250035E0,0E0,0E0,0E0,0E0,0E0,0E0,0E0,0E0],"parents":[2147483647,0,0,1,1,2,2,3,3,4,4,5,5,6,6],"right_children":[2,4,6,8,10,12,14,-1,-1,-1,-1,-1,-1,-1,-1],"split_conditions":[-6.983042E-2,-9.977848E-1,3.8274592E-1,-2.571794E-1,1.0468678E0,1.1451265E0,1.7848177E0,-6.3692324E-2,5.7091177E-2,1.4234136E-1,3.4191012E-2,-1.1678367E-1,9.3077645E-3,3.334281E-2,-7.097998E-2],"split_indices":[3,1,0,2,0,1,2,0,0,0,0,0,0,0,0],"split_type":[0,0,0,0,0,0,0,0,0,0,0,0,0,0,0],"sum_hessian":[7.380649E1,3.081483E1,4.2991657E1,5.218641E0,2.559619E1,2.932379E1,1.3667869E1,2.9820805E0,2.2365603E0,1.9383522E1,6.2126675E0,2.783275E1,1.4910402E0,1.2176828E1,1.4910402E0],"tree_param":{"num_deleted":"0","num_feature":"4","num_nodes":"15","size_leaf_vector":"1"}},{"base_weights":[-3.5518457E-4,8.727227E-1,-6.3885796E-1,-1.0098429E-1,1.0662795E0,-1.0550473E0,8.289267E-2,-5.9197944E-2,5.3006202E-2,1.2802696E-1,3.1179095E-2,-1.1632818E-1,-4.5852076E-2,2.3042103E-2,-7.68442E-2],"categories":[],"categories_nodes":[],"categories_segments":[],"categories_sizes":[],"default_left":[0,0,0,0,0,0,0,0,0,0,0,0,0,0,0],"id":1,"left_children":[1,3,5,7,9,11,13,-1,-1,-1,-1,-1,-1,-1,-1],"loss_changes":[4.2146084E1,6.126507E0,1.32045555E1,2.237612E0,3.9159012E0,1.2595444E0,2.2994032E0,0E0,0E0,0E0,0E0,0E0,0E0,0E0,0E0],"parents":[2147483647,0,0,1,1,2,2,3,3,4,4,5,5,6,6],"right_children":[2,4,6,8,10,12,14,-1,-1,-1,-1,-1,-1,-1,-1],"split_conditions":[-6.983042E-2,-9.977848E-1,2.7205893E-1,-2.571794E-1,1.0468678E0,5.1338553E-1,1.7848177E0,-5.9197944E-2,5.3006202E-2,1.2802696E-1,3.1179095E-2,-1.1632818E-1,-4.5852076E-2,2.3042103E-2,-7.68442E-2],"split_indices":[3,1,0,2,0,2,2,0,0,0,0,0,0,0,0],"split_type":[0,0,0,0,0,0,0,0,0,0,0,0,0,0,0],"sum_hessian":[7.3603264E1,3.093561E1,4.2667656E1,5.2090816E0,2.5726528E1,2.6769526E1,1.5898131E1,2.9644525E0,2.2446294E0,1.9499233E1,6.2272954E0,2.1854181E1,4.9153433E0,1.4171657E1,1.7264748E0],"tree_param":{"num_deleted":"0","num_feature":"4","num_nodes":"15","size_leaf_vector":"1"}},{"base_weights":[-1.4741995E-3,7.9205567E-1,-5.8629817E-1,-7.0791766E-2,8.886977E-1,-9.308572E-1,1.4681795E-1,1.1107518E-1,1.5532774E-2,-9.914547E-2,1.294743E-2,-5.8615174E-2,3.0787582E-2],"categories":[],"categories_nodes":[],"categories_segments":[],"categories_sizes":[],"default_left":[0,0,0,0,0,0,0,0,0,0,0,0,0],"id":2,"left_children":[1,3,5,-1,7,9,11,-1,-1,-1,-1,-1,-1],"loss_changes":[3.485126E1,5.2481956E0,1.1057466E1,0E0,4.774626E0,2.0268517E0,1.9142106E0,0E0,0E0,0E0,0E0,0E0,0E0],"parents":[2147483647,0,0,1,1,2,2,4,4,5,5,6,6],"right_children":[2,4,6,-1,8,10,12,-1,-1,-1,-1,-1,-1],"split_conditions":[-6.983042E-2,-1.2233543E0,3.8274592E-1,-7.0791766E-2,1.0468678E0,1.1451265E0,1.0481991E-1,1.1107518E-1,1.5532774E-2,-9.914547E-2,1.294743E-2,-5.8615174E-2,3.0787582E-2],"split_indices":[3,1,0,0,0,1,3,0,0,0,0,0,0],"split_type":[0,0,0,0,0,0,0,0,0,0,0,0,0],"sum_hessian":[7.309763E1,3.0864365E1,4.223327E1,1.4853411E0,2.9379023E1,2.8546774E1,1.3686494E1,2.2155933E1,7.223089E0,2.7064978E1,1.4817957E0,1.9901218E0,1.1696372E1],"tree_param":{"num_deleted":"0","num_feature":"4","num_nodes":"13","size_leaf_vector":"1"}},{"base_weights":[-2.3923602E-3,7.1868294E-1,-5.375564E-1,-1.2661572E-1,8.893937E-1,-8.9886296E-1,6.825331E-2,-5.8063786E-2,4.6550553E-2,1.06660925E-1,2.7096206E-2,-3.3995505E-2,-1.0100722E-1,2.052751E-2,-7.25041E-2],"categories":[],"categories_nodes":[],"categories_segments":[],"categories_sizes":[],"default_left":[0,0,0,0,0,0,0,0,0,0,0,0,0,0,0],"id":3,"left_children":[1,3,5,7,9,11,13,-1,-1,-1,-1,-1,-1,-1,-1],"loss_changes":[2.8708485E1,4.686102E0,9.40759E0,1.9372431E0,2.6145477E0,1.3235168E0,1.9838479E0,0E0,0E0,0E0,0E0,0E0,0E0,0E0,0E0],"parents":[2147483647,0,0,1,1,2,2,3,3,4,4,5,5,6,6],"right_children":[2,4,6,8,10,12,14,-1,-1,-1,-1,-1,-1,-1,-1],"split_conditions":[-6.983042E-2,-9.977848E-1,2.7205893E-1,-2.571794E-1,1.0468678E0,-9.977848E-1,1.7848177E0,-5.8063786E-2,4.6550553E-2,1.06660925E-1,2.7096206E-2,-3.3995505E-2,-1.0100722E-1,2.052751E-2,-7.25041E-2],"split_indices":[3,1,0,2,0,1,2,0,0,0,0,0,0,0,0],"split_type":[0,0,0,0,0,0,0,0,0,0,0,0,0,0,0],"sum_hessian":[7.2393684E1,3.0693975E1,4.1699707E1,5.2006273E0,2.5493347E1,2.581803E1,1.5881679E1,2.9545522E0,2.2460752E0,1.9251892E1,6.241456E0,4.957894E0,2.0860136E1,1.4174606E1,1.7070723E0],"tree_param":{"num_deleted":"0","num_feature":"4","num_nodes":"15","size_leaf_vector":"1"}},{"base_weights":[-3.2575305E-3,6.573533E-1,-4.9536297E-1,-6.672556E-2,7.44677E-1,-8.323196E-1,5.831722E-2,9.365811E-2,1.24803325E-2,-9.393153E-2,-2.8267989E-2,1.8590748E-2,-6.849059E-2],"categories":[],"categories_nodes":[],"categories_segments":[],"categories_sizes":[],"default_left":[0,0,0,0,0,0,0,0,0,0,0,0,0],"id":4,"left_children":[1,3,5,-1,7,9,11,-1,-1,-1,-1,-1,-1],"loss_changes":[2.390358E1,4.1280394E0,7.9095163E0,0E0,3.4426918E0,1.2787704E0,1.727606E0,0E0,0E0,0E0,0E0,0E0,0E0],"parents":[2147483647,0,0,1,1,2,2,4,4,5,5,6,6],"right_children":[2,4,6,-1,8,10,12,-1,-1,-1,-1,-1,-1],"split_conditions":[-6.983042E-2,-1.2233543E0,2.7205893E-1,-6.672556E-2,1.0468678E0,5.1338553E-1,1.7848177E0,9.365811E-2,1.24803325E-2,-9.393153E-2,-2.8267989E-2,1.8590748E-2,-6.849059E-2],"split_indices":[3,1,0,0,0,2,2,0,0,0,0,0,0],"split_type":[0,0,0,0,0,0,0,0,0,0,0,0,0],"sum_hessian":[7.152742E1,3.0392376E1,4.1135048E1,1.4689397E0,2.8923435E1,2.5259476E1,1.5875569E1,2.16958E1,7.2276354E0,2.055012E1,4.7093573E0,1.4189499E1,1.6860704E0],"tree_param":{"num_deleted":"0","num_feature":"4","num_nodes":"13","size_leaf_vector":"1"}},{"base_weights":[-5.007417E-3,5.5576676E-1,-4.9613002E-1,2.948931E-1,1.1771497E0,-7.964224E-1,1.1116264E-1,-9.9984325E-2,4.1512024E-2,5.088831E-2,1.3011967E-1,-8.6379275E-2,2.0301316E-2,-7.1482345E-2,2.701529E-2],"categories":[],"categories_nodes":[],"categories_segments":[],"categories_sizes":[],"default_left":[0,0,0,0,0,0,0,0,0,0,0,0,0,0,0],"id":5,"left_children":[1,3,5,7,9,11,13,-1,-1,-1,-1,-1,-1,-1,-1],"loss_changes":[1.9989576E1,5.1468325E0,7.1439466E0,4.338483E0,1.4088154E-1,1.9266739E0,1.9893993E0,0E0,0E0,0E0,0E0,0E0,0E0,0E0,0E0],"parents":[2147483647,0,0,1,1,2,2,3,3,4,4,5,5,6,6],"right_children":[2,4,6,8,10,12,14,-1,-1,-1,-1,-1,-1,-1,-1],"split_conditions":[6.115733E-2,4.5559317E-1,3.8274592E-1,-1.2233543E0,-2.81376E-1,1.1451265E0,1.4848249E-1,-9.9984325E-2,4.1512024E-2,5.088831E-2,1.3011967E-1,-8.6379275E-2,2.0301316E-2,-7.1482345E-2,2.701529E-2],"split_indices":[3,2,0,1,0,1,3,0,0,0,0,0,0,0,0],"split_type":[0,0,0,0,0,0,0,0,0,0,0,0,0,0,0],"sum_hessian":[7.0580284E1,3.289194E1,3.768834E1,2.4204712E1,8.687229E0,2.5010021E1,1.2678318E1,1.4349825E0,2.276973E1,2.1589377E0,6.528291E0,2.3557753E1,1.4522702E0,1.4821634E0,1.1196155E1],"tree_param":{"num_deleted":"0","num_feature":"4","num_nodes":"15","size_leaf_vector":"1"}},{"base_weights":[-4.664868E-3,5.5271024E-1,-4.237873E-1,-1.5946686E-1,7.01989E-1,-6.872899E-1,9.388479E-2,-5.7281245E-2,3.9390124E-2,8.589528E-2,1.8557817E-2,-1.00123346E-1,-4.485977E-2,3.8039707E-2,-2.5690231E-2],"categories":[],"categories_nodes":[],"categories_segments":[],"categories_sizes":[],"default_left":[0,0,0,0,0,0,0,0,0,0,0,0,0,0,0],"id":6,"left_children":[1,3,5,7,9,11,13,-1,-1,-1,-1,-1,-1,-1,-1],"loss_changes":[1.6741814E1,3.382495E0,5.6436152E0,1.6313696E0,1.9171095E0,1.5909033E0,1.5727377E0,0E0,0E0,0E0,0E0,0E0,0E0,0E0,0E0],"parents":[2147483647,0,0,1,1,2,2,3,3,4,4,5,5,6,6],"right_children":[2,4,6,8,10,12,14,-1,-1,-1,-1,-1,-1,-1,-1],"split_conditions":[-6.983042E-2,-9.977848E-1,3.8274592E-1,-2.571794E-1,1.0468678E0,-4.6908477E-1,9.3618083E-1,-5.7281245E-2,3.9390124E-2,8.589528E-2,1.8557817E-2,-1.00123346E-1,-4.485977E-2,3.8039707E-2,-2.5690231E-2],"split_indices":[3,1,0,2,0,2,0,0,0,0,0,0,0,0,0],"split_type":[0,0,0,0,0,0,0,0,0,0,0,0,0,0,0],"sum_hessian":[6.9663475E1,2.9763449E1,3.9900024E1,5.14578E0,2.461767E1,2.622398E1,1.36760435E1,2.9254434E0,2.2203367E0,1.8370592E1,6.247078E0,9.94673E0,1.627725E1,7.481209E0,6.194834E0],"tree_param":{"num_deleted":"0","num_feature":"4","num_nodes":"15","size_leaf_vector":"1"}},{"base_weights":[-5.009087E-3,4.7159111E-1,-4.26327E-1,2.3135017E-1,1.0553845E0,-6.91242E-1,8.5755296E-2,-9.426494E-2,3.413791E-2,4.2923313E-2,1.17634736E-1,-7.2212066E-3,-8.190658E-2,-6.669974E-2,2.3104755E-2],"categories":[],"categories_nodes":[],"categories_segments":[],"categories_sizes":[],"default_left":[0,0,0,0,0,0,0,0,0,0,0,0,0,0,0],"id":7,"left_children":[1,3,5,7,9,11,13,-1,-1,-1,-1,-1,-1,-1,-1],"loss_changes":[1.4183699E1,4.4049497E0,5.14458E0,3.5208004E0,2.057848E-1,1.9044409E0,1.6492298E0,0E0,0E0,0E0,0E0,0E0,0E0,0E0,0E0],"parents":[2147483647,0,0,1,1,2,2,3,3,4,4,5,5,6,6],"right_children":[2,4,6,8,10,12,14,-1,-1,-1,-1,-1,-1,-1,-1],"split_conditions":[6.115733E-2,4.5559317E-1,3.8274592E-1,-1.2233543E0,-2.81376E-1,-9.977848E-1,1.4848249E-1,-9.426494E-2,3.413791E-2,4.2923313E-2,1.17634736E-1,-7.2212066E-3,-8.190658E-2,-6.669974E-2,2.3104755E-2],"split_indices":[3,2,0,1,0,1,3,0,0,0,0,0,0,0,0],"split_type":[0,0,0,0,0,0,0,0,0,0,0,0,0,0,0],"sum_hessian":[6.863463E1,3.2148502E1,3.6486122E1,2.376506E1,8.383442E0,2.3815704E1,1.2670418E1,1.3879938E0,2.2377068E1,2.0937648E0,6.289677E0,4.3438907E0,1.9471813E1,1.4689779E0,1.120144E1],"tree_param":{"num_deleted":"0","num_feature":"4","num_nodes":"15","size_leaf_vector":"1"}},{"base_weights":[-5.2422695E-3,4.3211037E-1,-3.9431557E-1,2.0692174E-1,9.8883563E-1,-6.422149E-1,7.401715E-2,-9.014368E-2,3.1011373E-2,4.0349178E-2,1.10236935E-1,-7.1177E-2,2.7997373E-2,3.051663E-2,-3.62153E-2],"categories":[],"categories_nodes":[],"categories_segments":[],"categories_sizes":[],"default_left":[0,0,0,0,0,0,0,0,0,0,0,0,0,0,0],"id":8,"left_children":[1,3,5,7,9,11,13,-1,-1,-1,-1,-1,-1,-1,-1],"loss_changes":[1.185899E1,3.9094906E0,4.3286724E0,3.0965543E0,1.6568947E-1,1.7525091E0,1.4876832E0,0E0,0E0,0E0,0E0,0E0,0E0,0E0,0E0],"parents":[2147483647,0,0,1,1,2,2,3,3,4,4,5,5,6,6],"right_children":[2,4,6,8,10,12,14,-1,-1,-1,-1,-1,-1,-1,-1],"split_conditions":[6.115733E-2,4.5559317E-1,3.8274592E-1,-1.2233543E0,-2.81376E-1,1.1451265E0,1.0468678E0,-9.014368E-2,3.1011373E-2,4.0349178E-2,1.10236935E-1,-7.1177E-2,2.7997373E-2,3.051663E-2,-3.62153E-2],"split_indices":[3,2,0,1,0,1,0,0,0,0,0,0,0,0,0],"split_type":[0,0,0,0,0,0,0,0,0,0,0,0,0,0,0],"sum_hessian":[6.7690926E1,3.1816153E1,3.587477E1,2.3629843E1,8.186309E0,2.3215168E1,1.2659603E1,1.3537738E0,2.227607E1,2.0696712E0,6.1166377E0,2.1799162E1,1.4160068E0,8.470824E0,4.188778E0],"tree_param":{"num_deleted":"0","num_feature":"4","num_nodes":"15","size_leaf_vector":"1"}},{"base_weights":[-4.3343264E-3,6.1521775E-1,-2.432401E-1,7.972503E-1,-5.2585017E-2,-5.552418E-1,8.967861E-2,2.3589177E-2,9.371432E-2,-6.699747E-2,-3.0746327E-3,3.714513E-2,-2.9861584E-2],"categories":[],"categories_nodes":[],"categories_segments":[],"categories_sizes":[],"default_left":[0,0,0,0,0,0,0,0,0,0,0,0,0],"id":9,"left_children":[1,3,5,7,-1,9,11,-1,-1,-1,-1,-1,-1],"loss_changes":[1.0170367E1,4.391565E0,5.1993794E0,1.1053543E0,0E0,1.5278325E0,2.829264E0,0E0,0E0,0E0,0E0,0E0,0E0],"parents":[2147483647,0,0,1,1,2,2,3,3,5,5,6,6],"right_children":[2,4,6,8,-1,10,12,-1,-1,-1,-1,-1,-1],"split_conditions":[-5.501188E-1,1.4896158E0,1.6137193E-1,-8.351031E-1,-5.2585017E-2,4.6841764E-1,8.254939E-1,2.3589177E-2,9.371432E-2,-6.699747E-2,-3.0746327E-3,3.714513E-2,-2.9861584E-2],"split_indices":[3,0,0,2,0,1,0,0,0,0,0,0,0],"split_type":[0,0,0,0,0,0,0,0,0,0,0,0,0],"sum_hessian":[6.670091E1,1.812427E1,4.8576645E1,1.5890586E1,2.2336845E0,2.4731346E1,2.3845297E1,3.7058964E0,1.21846895E1,2.0064817E1,4.6665277E0,1.384315E1,1.0002148E1],"tree_param":{"num_deleted":"0","num_feature":"4","num_nodes":"13","size_leaf_vector":"1"}},{"base_weights":[-3.960191E-3,3.7231296E-1,-3.4192625E-1,1.6814838E-1,8.937048E-1,-5.6497765E-1,6.2209792E-2,-4.617211E-2,3.345903E-2,3.5789236E-2,1.0006505E-1,4.47729E-3,-6.987272E-2,4.500713E-2,-1.9314354E-2],"categories":[],"categories_nodes":[],"categories_segments":[],"categories_sizes":[],"default_left":[0,0,0,0,0,0,0,0,0,0,0,0,0,0,0],"id":10,"left_children":[1,3,5,7,9,11,13,-1,-1,-1,-1,-1,-1,-1,-1],"loss_changes":[8.634613E0,3.2703757E0,3.2590685E0,2.704484E0,1.4673805E-1,1.9188061E0,1.4358771E0,0E0,0E0,0E0,0E0,0E0,0E0,0E0,0E0],"parents":[2147483647,0,0,1,1,2,2,3,3,4,4,5,5,6,6],"right_children":[2,4,6,8,10,12,14,-1,-1,-1,-1,-1,-1,-1,-1],"split_conditions":[6.115733E-2,4.5559317E-1,3.8274592E-1,-9.977848E-1,-2.81376E-1,-9.977848E-1,1.8645564E-1,-4.617211E-2,3.345903E-2,3.5789236E-2,1.0006505E-1,4.47729E-3,-6.987272E-2,4.500713E-2,-1.9314354E-2],"split_indices":[3,2,0,1,0,1,1,0,0,0,0,0,0,0,0],"split_type":[0,0,0,0,0,0,0,0,0,0,0,0,0,0,0],"sum_hessian":[6.589844E1,3.113395E1,3.4764484E1,2.3323515E1,7.810433E0,2.2144482E1,1.2620005E1,4.5041823E0,1.8819334E1,2.0227377E0,5.787695E0,4.103283E0,1.8041199E1,4.7073574E0,7.9126472E0],"tree_param":{"num_deleted":"0","num_feature":"4","num_nodes":"15","size_leaf_vector":"1"}},{"base_weights":[-2.4590485E-3,5.39184E-1,-2.1047847E-1,7.1263283E-1,-5.0596077E-2,-4.848588E-1,7.31316E-2,2.0627746E-2,8.41973E-2,-5.96805E-2,1.0153865E-3,3.3411387E-2,-2.8280769E-2],"categories":[],"categories_nodes":[],"categories_segments":[],"categories_sizes":[],"default_left":[0,0,0,0,0,0,0,0,0,0,0,0,0],"id":11,"left_children":[1,3,5,7,-1,9,11,-1,-1,-1,-1,-1,-1],"loss_changes":[7.547458E0,3.7303286E0,3.801017E0,8.9764977E-1,0E0,1.3762589E0,2.3855944E0,0E0,0E0,0E0,0E0,0E0,0E0],"parents":[2147483647,0,0,1,1,2,2,3,3,5,5,6,6],"right_children":[2,4,6,8,-1,10,12,-1,-1,-1,-1,-1,-1],"split_conditions":[-5.501188E-1,1.4896158E0,1.6137193E-1,-8.351031E-1,-5.0596077E-2,4.6841764E-1,8.254939E-1,2.0627746E-2,8.41973E-2,-5.96805E-2,1.0153865E-3,3.3411387E-2,-2.8280769E-2],"split_indices":[3,0,0,2,0,1,0,0,0,0,0,0,0],"split_type":[0,0,0,0,0,0,0,0,0,0,0,0,0],"sum_hessian":[6.497872E1,1.7588812E1,4.738991E1,1.5358169E1,2.2306426E0,2.3726227E1,2.3663683E1,3.652763E0,1.1705405E1,1.9182505E1,4.543722E0,1.3688385E1,9.975298E0],"tree_param":{"num_deleted":"0","num_feature":"4","num_nodes":"13","size_leaf_vector":"1"}},{"base_weights":[-2.2402967E-3,1.5599212E-1,-6.346806E-1,7.3125386E-1,3.8911264E-2,-8.486786E-1,1.5884499E-1,1.6907869E-2,1.0568758E-1,-7.605401E-2,1.0668049E-2,-4.9749963E-2,-1.1959448E-1,9.8113306E-2,-8.066713E-2],"categories":[],"categories_nodes":[],"categories_segments":[],"categories_sizes":[],"default_left":[0,0,0,0,0,0,0,0,0,0,0,0,0,0,0],"id":12,"left_children":[1,3,5,7,9,11,13,-1,-1,-1,-1,-1,-1,-1,-1],"loss_changes":[6.6226835E0,3.5375876E0,2.3836842E0,1.4500403E0,2.5217962E0,6.962571E-1,3.6934404E0,0E0,0E0,0E0,0E0,0E0,0E0,0E0,0E0],"parents":[2147483647,0,0,1,1,2,2,3,3,4,4,5,5,6,6],"right_children":[2,4,6,8,10,12,14,-1,-1,-1,-1,-1,-1,-1,-1],"split_conditions":[8.907464E-1,-1.2487202E0,5.9044206E-1,-3.9202827E-1,-1.3361392E0,-1.9938703E-1,1.052781E0,1.6907869E-2,1.0568758E-1,-7.605401E-2,1.0668049E-2,-4.9749963E-2,-1.1959448E-1,9.8113306E-2,-8.066713E-2],"split_indices":[3,3,2,2,1,2,2,0,0,0,0,0,0,0,0],"split_type":[0,0,0,0,0,0,0,0,0,0,0,0,0,0,0],"sum_hessian":[6.4189476E1,5.194622E1,1.2243256E1,7.897442E0,4.404878E1,9.588047E0,2.655208E0,3.4538083E0,4.4436336E0,2.6433651E0,4.1405415E1,5.976662E0,3.611385E0,1.4252286E0,1.2299795E0],"tree_param":{"num_deleted":"0","num_feature":"4","num_nodes":"15","size_leaf_vector":"1"}},{"base_weights":[-3.6166594E-3,1.4216788E-1,-5.9815186E-1,6.866597E-1,3.355783E-2,-8.0310607E-1,1.4816847E-1,1.5645595E-2,1.0026201E-1,-7.1320824E-2,9.624242E-3,-4.64067E-2,-1.1440992E-1,9.181759E-2,-7.7657E-2],"categories":[],"categories_nodes":[],"categories_segments":[],"categories_sizes":[],"default_left":[0,0,0,0,0,0,0,0,0,0,0,0,0,0,0],"id":13,"left_children":[1,3,5,7,9,11,13,-1,-1,-1,-1,-1,-1,-1,-1],"loss_changes":[5.6897736E0,3.095779E0,2.0961504E0,1.3037705E0,2.176045E0,6.594629E-1,3.2971787E0,0E0,0E0,0E0,0E0,0E0,0E0,0E0,0E0],"parents":[2147483647,0,0,1,1,2,2,3,3,4,4,5,5,6,6],"right_children":[2,4,6,8,10,12,14,-1,-1,-1,-1,-1,-1,-1,-1],"split_conditions":[8.907464E-1,-1.2487202E0,5.9044206E-1,-3.9202827E-1,-1.3361392E0,-1.9938703E-1,1.052781E0,1.5645595E-2,1.0026201E-1,-7.1320824E-2,9.624242E-3,-4.64067E-2,-1.1440992E-1,9.181759E-2,-7.7657E-2],"split_indices":[3,3,2,2,1,2,2,0,0,0,0,0,0,0,0],"split_type":[0,0,0,0,0,0,0,0,0,0,0,0,0,0,0],"sum_hessian":[6.366452E1,5.1738678E1,1.1925841E1,7.718997E0,4.4019684E1,9.296698E0,2.629143E0,3.4406018E0,4.2783947E0,2.6052632E0,4.141442E1,5.8455625E0,3.4511356E0,1.4384646E0,1.1906782E0],"tree_param":{"num_deleted":"0","num_feature":"4","num_nodes":"15","size_leaf_vector":"1"}},{"base_weights":[-4.8318557E-3,3.1632176E-1,-2.4882123E-1,4.8197225E-1,-1.2755635E-1,-6.4052117E-1,-6.2136583E-2,4.190559E-3,7.067138E-2,5.1864006E-2,-3.292093E-2,-5.657369E-3,-9.803608E-2,1.0131977E-1,-2.6112765E-2],"categories":[],"categories_nodes":[],"categories_segments":[],"categories_sizes":[],"default_left":[0,0,0,0,0,0,0,0,0,0,0,0,0,0,0],"id":14,"left_children":[1,3,5,7,9,11,13,-1,-1,-1,-1,-1,-1,-1,-1],"loss_changes":[5.104002E0,2.1297069E0,2.6661122E0,2.0169606E0,1.2698946E0,2.2934518E0,5.864021E0,0E0,0E0,0E0,0E0,0E0,0E0,0E0,0E0],"parents":[2147483647,0,0,1,1,2,2,3,3,4,4,5,5,6,6],"right_children":[2,4,6,8,10,12,14,-1,-1,-1,-1,-1,-1,-1,-1],"split_conditions":[-6.983042E-2,1.0468678E0,-4.6908477E-1,-6.0002036E-2,-1.5980208E0,5.8510834E-1,-2.7644354E-1,4.190559E-3,7.067138E-2,5.1864006E-2,-3.292093E-2,-5.657369E-3,-9.803608E-2,1.0131977E-1,-2.6112765E-2],"split_indices":[3,0,2,0,3,3,2,0,0,0,0,0,0,0,0],"split_type":[0,0,0,0,0,0,0,0,0,0,0,0,0,0,0],"sum_hessian":[6.3132446E1,2.7128202E1,3.6004246E1,1.9693123E1,7.4350805E0,1.0836393E1,2.516785E1,7.0584416E0,1.2634681E1,1.3944917E0,6.040589E0,4.4155726E0,6.4208207E0,3.2911305E0,2.187672E1],"tree_param":{"num_deleted":"0","num_feature":"4","num_nodes":"15","size_leaf_vector":"1"}},{"base_weights":[-3.463704E-3,4.2897886E-1,-1.6678357E-1,5.960004E-1,-5.0750256E-2,-4.0417877E-1,6.805935E-2,1.4129067E-2,7.204281E-2,-5.055788E-2,2.2621532E-3,-2.2810526E-2,3.3952348E-2],"categories":[],"categories_nodes":[],"categories_segments":[],"categories_sizes":[],"default_left":[0,0,0,0,0,0,0,0,0,0,0,0,0],"id":15,"left_children":[1,3,5,7,-1,9,11,-1,-1,-1,-1,-1,-1],"loss_changes":[4.54981E0,3.065074E0,2.6335938E0,7.722845E-1,0E0,1.0237217E0,2.0355353E0,0E0,0E0,0E0,0E0,0E0,0E0],"parents":[2147483647,0,0,1,1,2,2,3,3,5,5,6,6],"right_children":[2,4,6,8,-1,10,12,-1,-1,-1,-1,-1,-1],"split_conditions":[-5.501188E-1,1.4896158E0,1.6137193E-1,-8.351031E-1,-5.0750256E-2,4.6841764E-1,-2.6009917E-2,1.4129067E-2,7.204281E-2,-5.055788E-2,2.2621532E-3,-2.2810526E-2,3.3952348E-2],"split_indices":[3,0,0,2,0,1,2,0,0,0,0,0,0],"split_type":[0,0,0,0,0,0,0,0,0,0,0,0,0],"sum_hessian":[6.240772E1,1.6662281E1,4.5745438E1,1.4448895E1,2.2133856E0,2.2390518E1,2.335492E1,3.563163E0,1.0885733E1,1.7943005E1,4.4475136E0,1.1245699E1,1.2109221E1],"tree_param":{"num_deleted":"0","num_feature":"4","num_nodes":"13","size_leaf_vector":"1"}},{"base_weights":[-3.1685254E-3,1.2003465E-1,-5.234748E-1,-6.696738E-1,1.7471151E-1,-7.212497E-1,1.5835279E-1,-1.9309983E-3,-9.573574E-2,2.9236922E-2,-1.975911E-2,-3.7205145E-2,-1.0838314E-1,8.6751595E-2,-7.328915E-2],"categories":[],"categories_nodes":[],"categories_segments":[],"categories_sizes":[],"default_left":[0,0,0,0,0,0,0,0,0,0,0,0,0,0,0],"id":16,"left_children":[1,3,5,7,9,11,13,-1,-1,-1,-1,-1,-1,-1,-1],"loss_changes":[4.082353E0,2.3412335E0,1.7582121E0,6.4431226E-1,2.2028518E0,8.160782E-1,2.8865898E0,0E0,0E0,0E0,0E0,0E0,0E0,0E0,0E0],"parents":[2147483647,0,0,1,1,2,2,3,3,4,4,5,5,6,6],"right_children":[2,4,6,8,10,12,14,-1,-1,-1,-1,-1,-1,-1,-1],"split_conditions":[8.907464E-1,-1.3361392E0,5.9044206E-1,-1.730886E0,1.0468678E0,-1.9938703E-1,1.052781E0,-1.9309983E-3,-9.573574E-2,2.9236922E-2,-1.975911E-2,-3.7205145E-2,-1.0838314E-1,8.6751595E-2,-7.328915E-2],"split_indices":[3,1,2,1,0,2,2,0,0,0,0,0,0,0,0],"split_type":[0,0,0,0,0,0,0,0,0,0,0,0,0,0,0],"sum_hessian":[6.170367E1,5.05122E1,1.1191468E1,2.5425024E0,4.7969696E1,8.630296E0,2.5611722E0,1.1070122E0,1.4354903E0,3.661353E1,1.1356167E1,5.4283915E0,3.2019048E0,1.4411072E0,1.1200651E0],"tree_param":{"num_deleted":"0","num_feature":"4","num_nodes":"15","size_leaf_vector":"1"}},{"base_weights":[-6.613715E-3,3.8835573E-1,-1.5440069E-1,5.4360735E-1,-4.586702E-2,-3.5879427E-1,7.410939E-2,1.087191E-2,6.6695966E-2,-1.0478818E-2,-5.562942E-2,3.4842815E-2,-2.5289355E-2],"categories":[],"categories_nodes":[],"categories_segments":[],"categories_sizes":[],"default_left":[0,0,0,0,0,0,0,0,0,0,0,0,0],"id":17,"left_children":[1,3,5,7,-1,9,11,-1,-1,-1,-1,-1,-1],"loss_changes":[3.6978304E0,2.5183196E0,2.178265E0,7.3426294E-1,0E0,1.1702089E0,2.1135962E0,0E0,0E0,0E0,0E0,0E0,0E0],"parents":[2147483647,0,0,1,1,2,2,3,3,5,5,6,6],"right_children":[2,4,6,8,-1,10,12,-1,-1,-1,-1,-1,-1],"split_conditions":[-5.501188E-1,1.4896158E0,2.7205893E-1,-8.351031E-1,-4.586702E-2,5.4144573E-1,8.254939E-1,1.087191E-2,6.6695966E-2,-1.0478818E-2,-5.562942E-2,3.4842815E-2,-2.5289355E-2],"split_indices":[3,0,0,2,0,3,0,0,0,0,0,0,0],"split_type":[0,0,0,0,0,0,0,0,0,0,0,0,0],"sum_hessian":[6.132284E1,1.6254343E1,4.5068497E1,1.4039293E1,2.21505E0,2.348865E1,2.157985E1,3.517928E0,1.0521365E1,1.0944027E1,1.2544621E1,1.1699642E1,9.880207E0],"tree_param":{"num_deleted":"0","num_feature":"4","num_nodes":"13","size_leaf_vector":"1"}},{"base_weights":[-6.4395643E-3,1.0033728E-1,-4.723487E-1,-6.5565664E-1,1.527504E-1,-6.64583E-1,1.6819322E-1,-3.597537E-3,-9.267743E-2,1.9464407E-2,-7.0227526E-2,-3.2035995E-2,-1.0346188E-1,8.3137766E-2,-6.979304E-2],"categories":[],"categories_nodes":[],"categories_segments":[],"categories_sizes":[],"default_left":[0,0,0,0,0,0,0,0,0,0,0,0,0,0,0],"id":18,"left_children":[1,3,5,7,9,11,13,-1,-1,-1,-1,-1,-1,-1,-1],"loss_changes":[3.1111746E0,2.1181169E0,1.5472515E0,5.531465E-1,1.871713E0,8.364148E-1,2.5843625E0,0E0,0E0,0E0,0E0,0E0,0E0,0E0,0E0],"parents":[2147483647,0,0,1,1,2,2,3,3,4,4,5,5,6,6],"right_children":[2,4,6,8,10,12,14,-1,-1,-1,-1,-1,-1,-1,-1],"split_conditions":[8.907464E-1,-1.3361392E0,5.9044206E-1,-1.730886E0,1.8216767E0,-1.9938703E-1,1.052781E0,-3.597537E-3,-9.267743E-2,1.9464407E-2,-7.0227526E-2,-3.2035995E-2,-1.0346188E-1,8.3137766E-2,-6.979304E-2],"split_indices":[3,1,2,1,0,2,2,0,0,0,0,0,0,0,0],"split_type":[0,0,0,0,0,0,0,0,0,0,0,0,0,0,0],"sum_hessian":[6.058563E1,4.9927834E1,1.0657796E1,2.490862E0,4.743697E1,8.16873E0,2.4890664E0,1.102841E0,1.388021E0,4.5957542E1,1.4794269E0,5.19856E0,2.9701693E0,1.4324028E0,1.0566636E0],"tree_param":{"num_deleted":"0","num_feature":"4","num_nodes":"15","size_leaf_vector":"1"}},{"base_weights":[-1.0428934E-2,3.4929004E-1,-1.4388792E-1,4.9251682E-1,-4.1457262E-2,-4.5513055E-1,-3.3613255E-3,8.583305E-3,6.1175883E-2,-4.483592E-3,-8.932144E-2,6.260693E-2,-1.2428953E-2],"categories":[],"categories_nodes":[],"categories_segments":[],"categories_sizes":[],"default_left":[0,0,0,0,0,0,0,0,0,0,0,0,0],"id":19,"left_children":[1,3,5,7,-1,9,11,-1,-1,-1,-1,-1,-1],"loss_changes":[2.9887404E0,2.0482593E0,1.9821184E0,6.5797424E-1,0E0,2.4943388E0,2.5327873E0,0E0,0E0,0E0,0E0,0E0,0E0],"parents":[2147483647,0,0,1,1,2,2,3,3,5,5,6,6],"right_children":[2,4,6,8,-1,10,12,-1,-1,-1,-1,-1,-1],"split_conditions":[-5.501188E-1,1.4896158E0,-4.6908477E-1,-8.351031E-1,-4.1457262E-2,5.8510834E-1,-2.7644354E-1,8.583305E-3,6.1175883E-2,-4.483592E-3,-8.932144E-2,6.260693E-2,-1.2428953E-2],"split_indices":[3,0,2,2,0,3,2,0,0,0,0,0,0],"split_type":[0,0,0,0,0,0,0,0,0,0,0,0,0],"sum_hessian":[6.020851E1,1.5855403E1,4.4353107E1,1.3651021E1,2.204383E0,1.3100022E1,3.1253086E1,3.4849975E0,1.0166023E1,7.333788E0,5.7662344E0,4.3635635E0,2.6889523E1],"tree_param":{"num_deleted":"0","num_feature":"4","num_nodes":"13","size_leaf_vector":"1"}},{"base_weights":[-9.797948E-3,5.297941E-1,-8.866693E-2,1.345938E-1,9.639344E-2,-2.6854886E-2,-5.95462E-1,6.779175E-2,-4.2770557E-2,-7.934756E-2,1.5185971E-3,9.7007295E-3,-8.35996E-2],"categories":[],"categories_nodes":[],"categories_segments":[],"categories_sizes":[],"default_left":[0,0,0,0,0,0,0,0,0,0,0,0,0],"id":20,"left_children":[1,3,5,7,-1,9,11,-1,-1,-1,-1,-1,-1],"loss_changes":[2.6285346E0,1.2221048E0,1.6687845E0,1.9051342E0,0E0,1.590731E0,1.0470412E0,0E0,0E0,0E0,0E0,0E0,0E0],"parents":[2147483647,0,0,1,1,2,2,3,3,5,5,6,6],"right_children":[2,4,6,8,-1,10,12,-1,-1,-1,-1,-1,-1],"split_conditions":[-1.2487202E0,3.207443E-1,1.2400471E0,6.041199E-1,9.639344E-2,-1.1177324E0,-1.4989328E0,6.779175E-2,-4.2770557E-2,-7.934756E-2,1.5185971E-3,9.7007295E-3,-8.35996E-2],"split_indices":[3,2,3,0,0,3,0,0,0,0,0,0,0],"split_type":[0,0,0,0,0,0,0,0,0,0,0,0,0],"sum_hessian":[5.9661102E1,6.879148E0,5.278195E1,4.286839E0,2.5923092E0,4.7982662E1,4.7992897E0,2.0756338E0,2.2112052E0,1.5652995E0,4.6417366E1,1.3911192E0,3.4081707E0],"tree_param":{"num_deleted":"0","num_feature":"4","num_nodes":"13","size_leaf_vector":"1"}},{"base_weights":[-9.307781E-3,3.1409505E-1,-1.2732577E-1,4.4970223E-1,-3.903482E-2,-4.2215326E-1,3.3475105E-3,1.6847482E-2,6.384599E-2,-4.2240294E-3,-8.453782E-2,5.7391882E-2,-1.0744553E-2],"categories":[],"categories_nodes":[],"categories_segments":[],"categories_sizes":[],"default_left":[0,0,0,0,0,0,0,0,0,0,0,0,0],"id":21,"left_children":[1,3,5,7,-1,9,11,-1,-1,-1,-1,-1,-1],"loss_changes":[2.344639E0,1.74528E0,1.733174E0,6.48581E-1,0E0,2.1851568E0,2.0932806E0,0E0,0E0,0E0,0E0,0E0,0E0],"parents":[2147483647,0,0,1,1,2,2,3,3,5,5,6,6],"right_children":[2,4,6,8,-1,10,12,-1,-1,-1,-1,-1,-1],"split_conditions":[-5.501188E-1,1.4896158E0,-4.6908477E-1,-3.9202827E-1,-3.903482E-2,5.8510834E-1,-2.7644354E-1,1.6847482E-2,6.384599E-2,-4.2240294E-3,-8.453782E-2,5.7391882E-2,-1.0744553E-2],"split_indices":[3,0,2,2,0,3,2,0,0,0,0,0,0],"split_type":[0,0,0,0,0,0,0,0,0,0,0,0,0],"sum_hessian":[5.9382668E1,1.5432318E1,4.395035E1,1.3244363E1,2.1879547E0,1.281233E1,3.1138021E1,6.0793576E0,7.1650047E0,7.3311977E0,5.481133E0,4.383485E0,2.6754536E1],"tree_param":{"num_deleted":"0","num_feature":"4","num_nodes":"13","size_leaf_vector":"1"}},{"base_weights":[-8.5243145E-3,4.8569274E-1,-7.8825556E-2,1.10295884E-1,9.206562E-2,-6.857289E-1,-3.2358877E-2,6.3541085E-2,-4.1738737E-2,-1.36203915E-2,-9.074257E-2,2.7189055E-3,-5.3109437E-2],"categories":[],"categories_nodes":[],"categories_segments":[],"categories_sizes":[],"default_left":[0,0,0,0,0,0,0,0,0,0,0,0,0],"id":22,"left_children":[1,3,5,7,-1,9,11,-1,-1,-1,-1,-1,-1],"loss_changes":[2.1183875E0,1.1386529E0,1.4801773E0,1.7096865E0,0E0,3.319484E-1,1.5152532E0,0E0,0E0,0E0,0E0,0E0,0E0],"parents":[2147483647,0,0,1,1,2,2,3,3,5,5,6,6],"right_children":[2,4,6,8,-1,10,12,-1,-1,-1,-1,-1,-1],"split_conditions":[-1.2487202E0,3.207443E-1,-1.3361392E0,6.041199E-1,9.206562E-2,-1.730886E0,1.2400471E0,6.3541085E-2,-4.1738737E-2,-1.36203915E-2,-9.074257E-2,2.7189055E-3,-5.3109437E-2],"split_indices":[3,2,1,0,0,1,3,0,0,0,0,0,0],"split_type":[0,0,0,0,0,0,0,0,0,0,0,0,0],"sum_hessian":[5.8869278E1,6.5953436E0,5.2273933E1,4.2129316E0,2.3824117E0,2.739235E0,4.95347E1,2.0092797E0,2.2036521E0,1.2514952E0,1.4877398E0,4.509584E1,4.438861E0],"tree_param":{"num_deleted":"0","num_feature":"4","num_nodes":"13","size_leaf_vector":"1"}},{"base_weights":[-8.36613E-3,4.6245837E-1,-7.41997E-2,5.1638256E-3,7.944387E-2,-2.5283462E-1,6.54883E-2,6.0395863E-2,-8.096742E-2,-3.6544666E-2,1.7098565E-2,2.0856703E-2,-2.2674784E-2],"categories":[],"categories_nodes":[],"categories_segments":[],"categories_sizes":[],"default_left":[0,0,0,0,0,0,0,0,0,0,0,0,0],"id":23,"left_children":[1,3,5,7,-1,9,11,-1,-1,-1,-1,-1,-1],"loss_changes":[1.8798411E0,1.1257358E0,1.3415301E0,2.5074818E0,0E0,1.1843927E0,1.3264185E0,0E0,0E0,0E0,0E0,0E0,0E0],"parents":[2147483647,0,0,1,1,2,2,3,3,5,5,6,6],"right_children":[2,4,6,8,-1,10,12,-1,-1,-1,-1,-1,-1],"split_conditions":[-1.2487202E0,-3.9202827E-1,5.0684948E-2,6.041199E-1,7.944387E-2,4.6841764E-1,1.0468678E0,6.0395863E-2,-8.096742E-2,-3.6544666E-2,1.7098565E-2,2.0856703E-2,-2.2674784E-2],"split_indices":[3,2,0,0,0,1,0,0,0,0,0,0,0],"split_type":[0,0,0,0,0,0,0,0,0,0,0,0,0],"sum_hessian":[5.8540695E1,6.4423113E0,5.2098385E1,3.1368856E0,3.3054256E0,2.2506618E1,2.9591766E1,1.9573208E0,1.1795647E0,1.7890673E1,4.615947E0,2.0057787E1,9.533979E0],"tree_param":{"num_deleted":"0","num_feature":"4","num_nodes":"13","size_leaf_vector":"1"}},{"base_weights":[-6.896483E-3,7.074063E-2,-3.664428E-1,7.8470343E-1,2.0583648E-2,-5.5582166E-1,2.0018099E-1,6.4571346E-3,1.1237414E-1,-3.4475375E-2,2.1255445E-2,-1.839318E-2,-9.7081766E-2,7.432508E-2,-4.299466E-2],"categories":[],"categories_nodes":[],"categories_segments":[],"categories_sizes":[],"default_left":[0,0,0,0,0,0,0,0,0,0,0,0,0,0,0],"id":24,"left_children":[1,3,5,7,9,11,13,-1,-1,-1,-1,-1,-1,-1,-1],"loss_changes":[1.6751045E0,1.7538369E0,1.2544676E0,7.129873E-1,3.3842726E0,1.0946302E0,1.4843988E0,0E0,0E0,0E0,0E0,0E0,0E0,0E0,0E0],"parents":[2147483647,0,0,1,1,2,2,3,3,4,4,5,5,6,6],"right_children":[2,4,6,8,10,12,14,-1,-1,-1,-1,-1,-1,-1,-1],"split_conditions":[8.907464E-1,-1.3937627E0,5.9044206E-1,-1.5671399E0,-3.535E-1,-1.9938703E-1,1.0142528E0,6.4571346E-3,1.1237414E-1,-3.4475375E-2,2.1255445E-2,-1.839318E-2,-9.7081766E-2,7.432508E-2,-4.299466E-2],"split_indices":[3,2,2,2,2,2,2,0,0,0,0,0,0,0,0],"split_type":[0,0,0,0,0,0,0,0,0,0,0,0,0,0,0],"sum_hessian":[5.8080532E1,4.842692E1,9.653612E0,2.2174556E0,4.6209465E1,7.249668E0,2.4039443E0,1.0908644E0,1.1265913E0,1.5643202E1,3.0566263E1,4.5845413E0,2.6651266E0,1.1947423E0,1.209202E0],"tree_param":{"num_deleted":"0","num_feature":"4","num_nodes":"15","size_leaf_vector":"1"}},{"base_weights":[-5.987792E-3,-6.5220535E-1,3.5974752E-2,-1.238202E-2,-8.7080784E-2,1.5385322E-1,-2.1485206E-1,3.272776E-2,-3.0836273E-2,6.739976E-2,-3.2917768E-2],"categories":[],"categories_nodes":[],"categories_segments":[],"categories_sizes":[],"default_left":[0,0,0,0,0,0,0,0,0,0,0],"id":25,"left_children":[1,3,5,-1,-1,7,9,-1,-1,-1,-1],"loss_changes":[1.6185615E0,3.125118E-1,1.6942499E0,0E0,0E0,3.211439E0,2.0895877E0,0E0,0E0,0E0,0E0],"parents":[2147483647,0,0,1,1,2,2,5,5,6,6],"right_children":[2,4,6,-1,-1,8,10,-1,-1,-1,-1],"split_conditions":[-1.3361392E0,-1.730886E0,5.4144573E-1,-1.238202E-2,-8.7080784E-2,1.0468678E0,-9.977848E-1,3.272776E-2,-3.0836273E-2,6.739976E-2,-3.2917768E-2],"split_indices":[1,1,3,0,0,0,1,0,0,0,0],"split_type":[0,0,0,0,0,0,0,0,0,0,0],"sum_hessian":[5.782298E1,2.6390715E0,5.5183907E1,1.2307168E0,1.4083546E0,3.7804115E1,1.737979E1,2.770215E1,1.0101965E1,1.4227657E0,1.5957025E1],"tree_param":{"num_deleted":"0","num_feature":"4","num_nodes":"11","size_leaf_vector":"1"}},{"base_weights":[-6.569866E-3,4.3259382E-1,-6.688514E-2,5.875576E-3,7.51514E-1,-7.6281756E-2,-3.0719066E-2,5.6211423E-2,-7.3428884E-2,2.1776654E-2,8.555227E-2,3.6678743E-2,-1.0228503E-2],"categories":[],"categories_nodes":[],"categories_segments":[],"categories_sizes":[],"default_left":[0,0,0,0,0,0,0,0,0,0,0,0,0],"id":26,"left_children":[1,3,5,7,9,-1,11,-1,-1,-1,-1,-1,-1],"loss_changes":[1.5775421E0,9.7458136E-1,1.2921606E0,2.094487E0,4.1805983E-2,0E0,1.4806771E0,0E0,0E0,0E0,0E0,0E0,0E0],"parents":[2147483647,0,0,1,1,2,2,3,3,4,4,6,6],"right_children":[2,4,6,8,10,-1,12,-1,-1,-1,-1,-1,-1],"split_conditions":[-1.2487202E0,-3.9202827E-1,-1.1177324E0,6.041199E-1,3.207443E-1,-7.6281756E-2,-5.501188E-1,5.6211423E-2,-7.3428884E-2,2.1776654E-2,8.555227E-2,3.6678743E-2,-1.0228503E-2],"split_indices":[3,2,3,0,2,0,3,0,0,0,0,0,0],"split_type":[0,0,0,0,0,0,0,0,0,0,0,0,0],"sum_hessian":[5.7463898E1,6.1937985E0,5.12701E1,3.08477E0,3.1090286E0,1.5402117E0,4.9729885E1,1.8985507E0,1.1862192E0,1.0115794E0,2.097449E0,6.957871E0,4.2772015E1],"tree_param":{"num_deleted":"0","num_feature":"4","num_nodes":"13","size_leaf_vector":"1"}},{"base_weights":[-5.1190085E-3,-6.1369187E-1,3.4065735E-2,-1.0930365E-2,-8.2938366E-2,8.1935994E-2,-4.5740464E-1,1.1247592E-2,-5.8044802E-2,2.8070485E-2,-7.3708124E-2],"categories":[],"categories_nodes":[],"categories_segments":[],"categories_sizes":[],"default_left":[0,0,0,0,0,0,0,0,0,0,0],"id":27,"left_children":[1,3,5,-1,-1,7,9,-1,-1,-1,-1],"loss_changes":[1.4073418E0,2.976917E-1,1.3448572E0,0E0,0E0,1.1067976E0,1.2564279E0,0E0,0E0,0E0,0E0],"parents":[2147483647,0,0,1,1,2,2,5,5,6,6],"right_children":[2,4,6,-1,-1,8,10,-1,-1,-1,-1],"split_conditions":[-1.3361392E0,-1.730886E0,1.2400471E0,-1.0930365E-2,-8.2938366E-2,1.8216767E0,-1.4989328E0,1.1247592E-2,-5.8044802E-2,2.8070485E-2,-7.3708124E-2],"split_indices":[1,1,3,0,0,0,0,0,0,0,0],"split_type":[0,0,0,0,0,0,0,0,0,0,0],"sum_hessian":[5.7139366E1,2.5696099E0,5.4569756E1,1.2210296E0,1.3485801E0,5.0485634E1,4.084124E0,4.9054134E1,1.4314983E0,1.1212628E0,2.962861E0],"tree_param":{"num_deleted":"0","num_feature":"4","num_nodes":"11","size_leaf_vector":"1"}},{"base_weights":[-7.959441E-3,-2.0994332E-1,1.0840139E-1,-3.8164327E-1,4.0262735E-1,9.276565E-1,2.4412243E-2,1.602449E-2,-6.093208E-2,9.2121765E-2,-3.8624283E-2,-6.1382907E-3,1.4401548E-1,7.195141E-2,-6.2599587E-3],"categories":[],"categories_nodes":[],"categories_segments":[],"categories_sizes":[],"default_left":[0,0,0,0,0,0,0,0,0,0,0,0,0,0,0],"id":28,"left_children":[1,3,5,7,9,11,13,-1,-1,-1,-1,-1,-1,-1,-1],"loss_changes":[1.3850465E0,2.4178128E0,2.5532355E0,2.2354121E0,2.4829197E0,1.8391438E0,2.1607978E0,0E0,0E0,0E0,0E0,0E0,0E0,0E0,0E0],"parents":[2147483647,0,0,1,1,2,2,3,3,4,4,5,5,6,6],"right_children":[2,4,6,8,10,12,14,-1,-1,-1,-1,-1,-1,-1,-1],"split_conditions":[-3.7276414E-1,6.9398725E-1,-2.9570764E-1,-1.0662726E0,6.115733E-2,6.115733E-2,-1.2487202E0,1.602449E-2,-6.093208E-2,9.2121765E-2,-3.8624283E-2,-6.1382907E-3,1.4401548E-1,7.195141E-2,-6.2599587E-3],"split_indices":[2,1,2,2,3,3,3,0,0,0,0,0,0,0,0],"split_type":[0,0,0,0,0,0,0,0,0,0,0,0,0,0,0],"sum_hessian":[5.696229E1,2.0526796E1,3.6435497E1,1.6327324E1,4.1994715E0,2.4539528E0,3.3981544E1,4.9180956E0,1.1409229E1,2.432571E0,1.7669007E0,1.1380081E0,1.3159447E0,2.971811E0,3.1009733E1],"tree_param":{"num_deleted":"0","num_feature":"4","num_nodes":"15","size_leaf_vector":"1"}},{"base_weights":[-3.504152E-3,-5.736801E-1,3.2478776E-2,-8.872194E-3,-7.9101644E-2,7.576066E-2,-4.218486E-1,1.0426278E-2,-5.444869E-2,2.6643077E-2,-6.96774E-2],"categories":[],"categories_nodes":[],"categories_segments":[],"categories_sizes":[],"default_left":[0,0,0,0,0,0,0,0,0,0,0],"id":29,"left_children":[1,3,5,-1,-1,7,9,-1,-1,-1,-1],"loss_changes":[1.2009989E0,2.9604018E-1,1.1165383E0,0E0,0E0,9.619996E-1,1.122237E0,0E0,0E0,0E0,0E0],"parents":[2147483647,0,0,1,1,2,2,5,5,6,6],"right_children":[2,4,6,-1,-1,8,10,-1,-1,-1,-1],"split_conditions":[-1.3361392E0,-1.730886E0,1.2400471E0,-8.872194E-3,-7.9101644E-2,1.8216767E0,-1.4989328E0,1.0426278E-2,-5.444869E-2,2.6643077E-2,-6.96774E-2],"split_indices":[1,1,3,0,0,0,0,0,0,0,0],"split_type":[0,0,0,0,0,0,0,0,0,0,0],"sum_hessian":[5.662975E1,2.4746103E0,5.415514E1,1.2016058E0,1.2730045E0,5.0205513E1,3.949625E0,4.8795143E1,1.4103723E0,1.1361517E0,2.8134732E0],"tree_param":{"num_deleted":"0","num_feature":"4","num_nodes":"11","size_leaf_vector":"1"}}]},"name":"gbtree"},"learner_model_param":{"base_score":"4.6135664E-1","boost_from_average":"1","num_class":"0","num_feature":"4","num_target":"1"},"objective":{"name":"binary:logistic","reg_loss_param":{"scale_pos_weight":"1"}}},"version":[2,0,3]}